{"learner":{"attributes":{"best_iteration":"42","best_score":"0.639974683612585"},"feature_names":["gpa","ielts_score","research_score","volunteer_score","program_match_score"],"feature_types":["float","float","float","float","float"],"gradient_booster":{"model":{"cats":{"enc":[],"feature_segments":[],"sorted_idx":[]},"gbtree_model_param":{"num_parallel_tree":"1","num_trees":"53"},"iteration_indptr":[0,1,2,3,4,5,6,7,8,9,10,11,12,13,14,15,16,17,18,19,20,21,22,23,24,25,26,27,28,29,30,31,32,33,34,35,36,37,38,39,40,41,42,43,44,45,46,47,48,49,50,51,52,53],"tree_info":[0,0,0,0,0,0,0,0,0,0,0,0,0,0,0,0,0,0,0,0,0,0,0,0,0,0,0,0,0,0,0,0,0,0,0,0,0,0,0,0,0,0,0,0,0,0,0,0,0,0,0,0,0],"trees":[{"base_weights":[1.2771832E-7,-2.692295E-1,5.0043666E-1,-9.46767E-1,-1.5222225E-1,2.6316684E-1,1.0602779E0,-1.290055E-1,-6.331262E-2,-2.9371304E-2,3.2765146E-2,-2.9336488E-2,3.8494E-2,7.067668E-2,1.2182283E-1],"categories":[],"categories_nodes":[],"categories_segments":[],"categories_sizes":[],"default_left":[0,0,0,0,0,0,0,0,0,0,0,0,0,0,0],"id":0,"left_children":[1,3,5,7,9,11,13,-1,-1,-1,-1,-1,-1,-1,-1],"loss_changes":[1.3494519E2,5.1483047E1,4.6259583E1,9.488274E0,3.7882435E1,1.6879135E1,4.943634E0,0E0,0E0,0E0,0E0,0E0,0E0,0E0,0E0],"parents":[2147483647,0,0,1,1,2,2,3,3,4,4,5,5,6,6],"right_children":[2,4,6,8,10,12,14,-1,-1,-1,-1,-1,-1,-1,-1],"split_conditions":[4.3E0,2.56E0,5.2E0,2.36E0,5.9E0,3.37E0,3.49E0,-1.290055E-1,-6.331262E-2,-2.9371304E-2,3.2765146E-2,-2.9336488E-2,3.8494E-2,7.067668E-2,1.2182283E-1],"split_indices":[2,0,4,0,4,0,0,0,0,0,0,0,0,0,0],"split_type":[0,0,0,0,0,0,0,0,0,0,0,0,0,0,0],"sum_hessian":[9.995797E2,6.502266E2,3.4935312E2,9.471018E1,5.555164E2,2.4639641E2,1.0295671E2,4.3731613E1,5.0978565E1,4.293195E2,1.2619694E2,4.3981506E1,2.024149E2,3.348592E1,6.9470795E1],"tree_param":{"num_deleted":"0","num_feature":"5","num_nodes":"15","size_leaf_vector":"1"}},{"base_weights":[-1.4765957E-5,-2.428998E-1,4.509955E-1,-8.5799694E-1,-1.3707817E-1,2.7982682E-1,1.087296E0,-1.17203586E-1,-5.7238173E-2,-2.6463682E-2,2.9501785E-2,-2.030497E-2,3.828815E-2,9.093394E-2,1.3512316E-1],"categories":[],"categories_nodes":[],"categories_segments":[],"categories_sizes":[],"default_left":[0,0,0,0,0,0,0,0,0,0,0,0,0,0,0],"id":1,"left_children":[1,3,5,7,9,11,13,-1,-1,-1,-1,-1,-1,-1,-1],"loss_changes":[1.0963545E2,4.222468E1,3.7851242E1,7.876732E0,3.0735376E1,1.3882347E1,2.243042E0,0E0,0E0,0E0,0E0,0E0,0E0,0E0,0E0],"parents":[2147483647,0,0,1,1,2,2,3,3,4,4,5,5,6,6],"right_children":[2,4,6,8,10,12,14,-1,-1,-1,-1,-1,-1,-1,-1],"split_conditions":[4.3E0,2.56E0,6.6E0,2.36E0,5.9E0,3.37E0,5.6E0,-1.17203586E-1,-5.7238173E-2,-2.6463682E-2,2.9501785E-2,-2.030497E-2,3.828815E-2,9.093394E-2,1.3512316E-1],"split_indices":[2,0,4,0,4,0,2,0,0,0,0,0,0,0,0],"split_type":[0,0,0,0,0,0,0,0,0,0,0,0,0,0,0],"sum_hessian":[9.9883795E2,6.4951337E2,3.4932455E2,9.429688E1,5.552165E2,2.7640872E2,7.2915855E1,4.3435383E1,5.0861504E1,4.2896863E2,1.26247856E2,4.8444626E1,2.279641E2,4.6206665E1,2.670919E1],"tree_param":{"num_deleted":"0","num_feature":"5","num_nodes":"15","size_leaf_vector":"1"}},{"base_weights":[4.1721323E-5,-2.1936072E-1,4.0737632E-1,-7.8069973E-1,-1.2348331E-1,2.0918885E-1,8.7768334E-1,-1.0720479E-1,-5.1827323E-2,-2.2947045E-2,3.0328957E-2,-2.4525305E-2,3.0848175E-2,5.6978058E-2,1.0165199E-1],"categories":[],"categories_nodes":[],"categories_segments":[],"categories_sizes":[],"default_left":[0,0,0,0,0,0,0,0,0,0,0,0,0,0,0],"id":2,"left_children":[1,3,5,7,9,11,13,-1,-1,-1,-1,-1,-1,-1,-1],"loss_changes":[8.927806E1,3.4846542E1,3.2412495E1,6.67181E0,2.520663E1,1.12365675E1,3.83947E0,0E0,0E0,0E0,0E0,0E0,0E0,0E0,0E0],"parents":[2147483647,0,0,1,1,2,2,3,3,4,4,5,5,6,6],"right_children":[2,4,6,8,10,12,14,-1,-1,-1,-1,-1,-1,-1,-1],"split_conditions":[4.3E0,2.56E0,5.2E0,2.36E0,6.4E0,3.37E0,3.49E0,-1.0720479E-1,-5.1827323E-2,-2.2947045E-2,3.0328957E-2,-2.4525305E-2,3.0848175E-2,5.6978058E-2,1.0165199E-1],"split_indices":[2,0,4,0,4,0,0,0,0,0,0,0,0,0,0],"split_type":[0,0,0,0,0,0,0,0,0,0,0,0,0,0,0],"sum_hessian":[9.96969E2,6.48259E2,3.4870996E2,9.352866E1,5.5473035E2,2.4634496E2,1.0236502E2,4.286E1,5.0668663E1,4.4474277E2,1.0998757E2,4.3909737E1,2.0243523E2,3.3398952E1,6.8966064E1],"tree_param":{"num_deleted":"0","num_feature":"5","num_nodes":"15","size_leaf_vector":"1"}},{"base_weights":[4.1824547E-5,-2.4181233E-1,3.0694288E-1,-3.7769294E-1,1.4416367E-1,1.8942298E-1,7.577445E-1,-8.7856196E-2,-2.8034193E-2,-1.914004E-2,4.0631644E-2,1.0005056E-2,5.5080462E-2,7.6692956E-3,8.9199685E-2],"categories":[],"categories_nodes":[],"categories_segments":[],"categories_sizes":[],"default_left":[0,0,0,0,0,0,0,0,0,0,0,0,0,0,0],"id":3,"left_children":[1,3,5,7,9,11,13,-1,-1,-1,-1,-1,-1,-1,-1],"loss_changes":[7.394743E1,2.9276367E1,2.3118244E1,1.9861092E1,1.2903683E1,1.1236775E1,8.202778E0,0E0,0E0,0E0,0E0,0E0,0E0,0E0,0E0],"parents":[2147483647,0,0,1,1,2,2,3,3,4,4,5,5,6,6],"right_children":[2,4,6,8,10,12,14,-1,-1,-1,-1,-1,-1,-1,-1],"split_conditions":[3.9E0,5.4E0,6.5E0,2.54E0,2.87E0,3.88E0,4.3E0,-8.7856196E-2,-2.8034193E-2,-1.914004E-2,4.0631644E-2,1.0005056E-2,5.5080462E-2,7.6692956E-3,8.9199685E-2],"split_indices":[2,4,4,0,0,0,2,0,0,0,0,0,0,0,0],"split_type":[0,0,0,0,0,0,0,0,0,0,0,0,0,0,0],"sum_hessian":[9.9425653E2,5.5617413E2,4.380824E2,4.1137384E2,1.448003E2,3.4862042E2,8.9461975E1,6.56388E1,3.4573505E2,6.3626366E1,8.117393E1,2.8052203E2,6.809837E1,1.4990024E1,7.4471954E1],"tree_param":{"num_deleted":"0","num_feature":"5","num_nodes":"15","size_leaf_vector":"1"}},{"base_weights":[1.03482365E-4,-1.5240557E-1,4.0168485E-1,-2.5328413E-1,2.4381457E-1,2.578798E-1,8.340208E-1,-5.5716462E-2,-1.1253601E-2,-1.2482024E-2,4.3702956E-2,-4.688701E-2,2.9030565E-2,2.4619058E-2,9.4548546E-2],"categories":[],"categories_nodes":[],"categories_segments":[],"categories_sizes":[],"default_left":[0,0,0,0,0,0,0,0,0,0,0,0,0,0,0],"id":4,"left_children":[1,3,5,7,9,11,13,-1,-1,-1,-1,-1,-1,-1,-1],"loss_changes":[6.083532E1,2.883675E1,1.6782894E1,2.4500793E1,1.0496588E1,5.004942E0,4.2092247E0,0E0,0E0,0E0,0E0,0E0,0E0,0E0,0E0],"parents":[2147483647,0,0,1,1,2,2,3,3,4,4,5,5,6,6],"right_children":[2,4,6,8,10,12,14,-1,-1,-1,-1,-1,-1,-1,-1],"split_conditions":[3.5E0,6.4E0,5.8E0,2.4E0,2.87E0,3.7E0,4.4E0,-5.5716462E-2,-1.1253601E-2,-1.2482024E-2,4.3702956E-2,-4.688701E-2,2.9030565E-2,2.4619058E-2,9.4548546E-2],"split_indices":[0,4,4,2,0,2,2,0,0,0,0,0,0,0,0],"split_type":[0,0,0,0,0,0,0,0,0,0,0,0,0,0,0],"sum_hessian":[9.913146E2,7.189127E2,2.724019E2,5.733079E2,1.4560477E2,2.0560823E2,6.679364E1,1.8054529E2,3.9276266E2,5.019387E1,9.54109E1,8.207034E0,1.974012E2,1.1158075E1,5.5635567E1],"tree_param":{"num_deleted":"0","num_feature":"5","num_nodes":"15","size_leaf_vector":"1"}},{"base_weights":[1.8145936E-4,-1.9326483E-1,2.6229298E-1,-2.566554E-1,4.3006477E-1,1.3798605E-1,5.784339E-1,-1.0221205E-1,-1.9896379E-2,1.002776E-2,8.215799E-2,6.117543E-3,4.3177042E-2,2.0104665E-2,7.009731E-2],"categories":[],"categories_nodes":[],"categories_segments":[],"categories_sizes":[],"default_left":[0,0,0,0,0,0,0,0,0,0,0,0,0,0,0],"id":5,"left_children":[1,3,5,7,9,11,13,-1,-1,-1,-1,-1,-1,-1,-1],"loss_changes":[5.0201008E1,2.2619127E1,1.6442028E1,2.2658436E1,6.7553425E0,6.8127766E0,5.3317184E0,0E0,0E0,0E0,0E0,0E0,0E0,0E0,0E0],"parents":[2147483647,0,0,1,1,2,2,3,3,4,4,5,5,6,6],"right_children":[2,4,6,8,10,12,14,-1,-1,-1,-1,-1,-1,-1,-1],"split_conditions":[3.31E0,8.5E0,5.1E0,2.36E0,2.94E0,3.88E0,4.3E0,-1.0221205E-1,-1.9896379E-2,1.002776E-2,8.215799E-2,6.117543E-3,4.3177042E-2,2.0104665E-2,7.009731E-2],"split_indices":[0,4,4,0,0,0,2,0,0,0,0,0,0,0,0],"split_type":[0,0,0,0,0,0,0,0,0,0,0,0,0,0,0],"sum_hessian":[9.880703E2,5.686511E2,4.1941916E2,5.1669336E2,5.195776E1,3.020782E2,1.1734099E2,3.5041245E1,4.8165213E2,2.8883926E1,2.3073833E1,2.4042636E2,6.165181E1,2.9409239E1,8.7931755E1],"tree_param":{"num_deleted":"0","num_feature":"5","num_nodes":"15","size_leaf_vector":"1"}},{"base_weights":[2.7369178E-4,-2.3459697E-1,1.8397622E-1,-3.5790005E-1,1.0626038E-1,1.2942612E-1,8.0429304E-1,-9.421177E-2,-2.9620225E-2,-9.373693E-3,4.5957953E-2,-2.0176687E-3,2.9233066E-2,5.9109796E-2,1.0731043E-1],"categories":[],"categories_nodes":[],"categories_segments":[],"categories_sizes":[],"default_left":[0,0,0,0,0,0,0,0,0,0,0,0,0,0,0],"id":6,"left_children":[1,3,5,7,9,11,13,-1,-1,-1,-1,-1,-1,-1,-1],"loss_changes":[4.2572063E1,1.8238039E1,1.86306E1,1.1191559E1,8.226286E0,1.2437343E1,1.9194164E0,0E0,0E0,0E0,0E0,0E0,0E0,0E0,0E0],"parents":[2147483647,0,0,1,1,2,2,3,3,4,4,5,5,6,6],"right_children":[2,4,6,8,10,12,14,-1,-1,-1,-1,-1,-1,-1,-1],"split_conditions":[3.4E0,5.4E0,8.5E0,2.36E0,2.94E0,3.5E0,5E0,-9.421177E-2,-2.9620225E-2,-9.373693E-3,4.5957953E-2,-2.0176687E-3,2.9233066E-2,5.9109796E-2,1.0731043E-1],"split_indices":[2,4,4,0,0,0,2,0,0,0,0,0,0,0,0],"split_type":[0,0,0,0,0,0,0,0,0,0,0,0,0,0,0],"sum_hessian":[9.846898E2,4.3203702E2,5.526528E2,3.172307E2,1.14806305E2,5.090923E2,4.3560474E1,2.8938805E1,2.882919E2,7.377848E1,4.102782E1,2.658375E2,2.432548E2,2.6077364E1,1.7483112E1],"tree_param":{"num_deleted":"0","num_feature":"5","num_nodes":"15","size_leaf_vector":"1"}},{"base_weights":[3.4598817E-4,-3.315002E-1,1.0829271E-1,-7.733562E-1,-2.3766603E-1,-4.0618726E-3,4.0867743E-1,-8.8282354E-2,-7.206627E-3,-2.9022982E-2,2.1521656E-2,-1.0889476E-2,1.9577539E-2,2.3965798E-2,6.1434295E-2],"categories":[],"categories_nodes":[],"categories_segments":[],"categories_sizes":[],"default_left":[0,0,0,0,0,0,0,0,0,0,0,0,0,0,0],"id":7,"left_children":[1,3,5,7,9,11,13,-1,-1,-1,-1,-1,-1,-1,-1],"loss_changes":[3.522041E1,9.821993E0,2.503991E1,3.147503E0,4.8354225E0,1.1353331E1,6.873295E0,0E0,0E0,0E0,0E0,0E0,0E0,0E0,0E0],"parents":[2147483647,0,0,1,1,2,2,3,3,4,4,5,5,6,6],"right_children":[2,4,6,8,10,12,14,-1,-1,-1,-1,-1,-1,-1,-1],"split_conditions":[2.87E0,2.37E0,5.2E0,8.6E0,8.2E0,4.7E0,4.4E0,-8.8282354E-2,-7.206627E-3,-2.9022982E-2,2.1521656E-2,-1.0889476E-2,1.9577539E-2,2.3965798E-2,6.1434295E-2],"split_indices":[0,0,4,4,4,2,2,0,0,0,0,0,0,0,0],"split_type":[0,0,0,0,0,0,0,0,0,0,0,0,0,0,0],"sum_hessian":[9.81212E2,2.4032915E2,7.408828E2,4.0828762E1,1.995004E2,5.3992E2,2.0096281E2,3.5092213E1,5.736549E0,1.7907518E2,2.0425209E1,3.544393E2,1.8548068E2,1.1149751E2,8.94653E1],"tree_param":{"num_deleted":"0","num_feature":"5","num_nodes":"15","size_leaf_vector":"1"}},{"base_weights":[2.9126715E-4,-2.525139E-1,1.1962696E-1,-7.29359E-1,-1.8406157E-1,1.989653E-2,3.8266012E-1,-8.4127314E-2,-6.6019665E-3,-2.5195986E-2,2.318882E-2,-2.9262244E-3,3.5228297E-2,2.0567091E-2,5.655552E-2],"categories":[],"categories_nodes":[],"categories_segments":[],"categories_sizes":[],"default_left":[0,0,0,0,0,0,0,0,0,0,0,0,0,0,0],"id":8,"left_children":[1,3,5,7,9,11,13,-1,-1,-1,-1,-1,-1,-1,-1],"loss_changes":[2.9547112E1,1.011726E1,1.7445564E1,2.8462334E0,7.852704E0,7.9101067E0,5.802824E0,0E0,0E0,0E0,0E0,0E0,0E0,0E0,0E0],"parents":[2147483647,0,0,1,1,2,2,3,3,4,4,5,5,6,6],"right_children":[2,4,6,8,10,12,14,-1,-1,-1,-1,-1,-1,-1,-1],"split_conditions":[2.9E0,2.36E0,5.2E0,8.6E0,7.5E0,3.88E0,4.4E0,-8.4127314E-2,-6.6019665E-3,-2.5195986E-2,2.318882E-2,-2.9262244E-3,3.5228297E-2,2.0567091E-2,5.655552E-2],"split_indices":[2,0,4,4,4,0,2,0,0,0,0,0,0,0,0],"split_type":[0,0,0,0,0,0,0,0,0,0,0,0,0,0,0],"sum_hessian":[9.7739575E2,3.1306702E2,6.6432874E2,3.8087933E1,2.749791E2,4.8247238E2,1.8185634E2,3.236011E1,5.7278223E0,2.3673027E2,3.8248814E1,4.211045E2,6.1367893E1,9.350004E1,8.835631E1],"tree_param":{"num_deleted":"0","num_feature":"5","num_nodes":"15","size_leaf_vector":"1"}},{"base_weights":[2.7048637E-4,-1.0049083E-1,2.5788888E-1,-6.677069E-1,-6.637187E-2,1.5931137E-1,5.872245E-1,-7.681858E-2,-6.0475743E-3,-1.2509552E-2,2.763011E-2,-2.8873742E-2,2.1525728E-2,3.5104048E-2,8.571091E-2],"categories":[],"categories_nodes":[],"categories_segments":[],"categories_sizes":[],"default_left":[0,0,0,0,0,0,0,0,0,0,0,0,0,0,0],"id":9,"left_children":[1,3,5,7,9,11,13,-1,-1,-1,-1,-1,-1,-1,-1],"loss_changes":[2.5326826E1,1.3529092E1,8.812323E0,2.3748322E0,1.3369714E1,5.3887563E0,3.7035904E0,0E0,0E0,0E0,0E0,0E0,0E0,0E0,0E0],"parents":[2147483647,0,0,1,1,2,2,3,3,4,4,5,5,6,6],"right_children":[2,4,6,8,10,12,14,-1,-1,-1,-1,-1,-1,-1,-1],"split_conditions":[3.49E0,2.37E0,5.9E0,8.6E0,7.5E0,6E0,2.7E0,-7.681858E-2,-6.0475743E-3,-1.2509552E-2,2.763011E-2,-2.8873742E-2,2.1525728E-2,3.5104048E-2,8.571091E-2],"split_indices":[0,0,4,4,4,1,3,0,0,0,0,0,0,0,0],"split_type":[0,0,0,0,0,0,0,0,0,0,0,0,0,0,0],"sum_hessian":[9.736876E2,7.00366E2,2.733216E2,3.8684204E1,6.616818E2,2.1149895E2,6.1822643E1,3.296449E1,5.7197137E0,5.654209E2,9.626088E1,2.3015537E1,1.8848341E2,3.419676E1,2.7625883E1],"tree_param":{"num_deleted":"0","num_feature":"5","num_nodes":"15","size_leaf_vector":"1"}},{"base_weights":[2.9414025E-4,-2.653909E-1,8.574447E-2,-6.320822E-1,-1.9641823E-1,1.4864092E-4,3.1900197E-1,-7.355715E-2,-5.5393646E-3,3.3826604E-2,-2.285766E-2,-8.247065E-3,1.5783062E-2,2.3097167E-2,6.1555363E-2],"categories":[],"categories_nodes":[],"categories_segments":[],"categories_sizes":[],"default_left":[0,0,0,0,0,0,0,0,0,0,0,0,0,0,0],"id":10,"left_children":[1,3,5,7,9,11,13,-1,-1,-1,-1,-1,-1,-1,-1],"loss_changes":[2.207335E1,5.860029E0,1.4688086E1,2.16792E0,3.5265322E0,7.0371566E0,5.013336E0,0E0,0E0,0E0,0E0,0E0,0E0,0E0,0E0],"parents":[2147483647,0,0,1,1,2,2,3,3,4,4,5,5,6,6],"right_children":[2,4,6,8,10,12,14,-1,-1,-1,-1,-1,-1,-1,-1],"split_conditions":[2.87E0,2.36E0,5.2E0,8.6E0,6E-1,4.7E0,7.4E0,-7.355715E-2,-5.5393646E-3,3.3826604E-2,-2.285766E-2,-8.247065E-3,1.5783062E-2,2.3097167E-2,6.1555363E-2],"split_indices":[0,0,4,4,2,2,1,0,0,0,0,0,0,0,0],"split_type":[0,0,0,0,0,0,0,0,0,0,0,0,0,0,0],"sum_hessian":[9.7026886E2,2.356067E2,7.346621E2,3.6007835E1,1.9959888E2,5.381749E2,1.9648723E2,3.029564E1,5.712193E0,1.078371E1,1.8881517E2,3.5345505E2,1.8471986E2,1.5288322E2,4.3603996E1],"tree_param":{"num_deleted":"0","num_feature":"5","num_nodes":"15","size_leaf_vector":"1"}},{"base_weights":[2.7010104E-4,-1.5613957E-1,1.21737756E-1,-2.4469052E-1,8.5176855E-2,8.073038E-2,6.134224E-1,-6.7979634E-2,-1.9127894E-2,3.60244E-5,5.725199E-2,-2.0911168E-2,1.3060452E-2,4.2454034E-2,8.707042E-2],"categories":[],"categories_nodes":[],"categories_segments":[],"categories_sizes":[],"default_left":[0,0,0,0,0,0,0,0,0,0,0,0,0,0,0],"id":11,"left_children":[1,3,5,7,9,11,13,-1,-1,-1,-1,-1,-1,-1,-1],"loss_changes":[1.8410574E1,9.072571E0,1.0948161E1,7.077574E0,4.7307053E0,7.3217554E0,1.6634951E0,0E0,0E0,0E0,0E0,0E0,0E0,0E0,0E0],"parents":[2147483647,0,0,1,1,2,2,3,3,4,4,5,5,6,6],"right_children":[2,4,6,8,10,12,14,-1,-1,-1,-1,-1,-1,-1,-1],"split_conditions":[3.4E0,5.4E0,8.5E0,6E-1,3.18E0,6.1E0,5E0,-6.7979634E-2,-1.9127894E-2,3.60244E-5,5.725199E-2,-2.0911168E-2,1.3060452E-2,4.2454034E-2,8.707042E-2],"split_indices":[2,4,4,3,0,1,2,0,0,0,0,0,0,0,0],"split_type":[0,0,0,0,0,0,0,0,0,0,0,0,0,0,0],"sum_hessian":[9.6704266E2,4.2259558E2,5.444471E2,3.0914206E2,1.13453514E2,5.0360934E2,4.083773E1,3.2517536E1,2.7662454E2,9.7487625E1,1.5965891E1,7.346677E1,4.3014258E2,2.5077398E1,1.5760333E1],"tree_param":{"num_deleted":"0","num_feature":"5","num_nodes":"15","size_leaf_vector":"1"}},{"base_weights":[3.4986046E-4,-8.0424204E-2,2.075759E-1,-5.647768E-1,-5.2893452E-2,1.2572198E-1,4.9095094E-1,-6.360111E-2,1.8338023E-2,-8.773799E-3,3.3036128E-2,2.5131164E-2,-2.2855361E-3,2.7002377E-2,7.506805E-2],"categories":[],"categories_nodes":[],"categories_segments":[],"categories_sizes":[],"default_left":[0,0,0,0,0,0,0,0,0,0,0,0,0,0,0],"id":12,"left_children":[1,3,5,7,9,11,13,-1,-1,-1,-1,-1,-1,-1,-1],"loss_changes":[1.6176651E1,9.242815E0,6.225401E0,2.1043444E0,8.830682E0,3.9550507E0,3.2632923E0,0E0,0E0,0E0,0E0,0E0,0E0,0E0,0E0],"parents":[2147483647,0,0,1,1,2,2,3,3,4,4,5,5,6,6],"right_children":[2,4,6,8,10,12,14,-1,-1,-1,-1,-1,-1,-1,-1],"split_conditions":[3.49E0,2.37E0,5.9E0,4.6E0,8.5E0,6.9E0,2.7E0,-6.360111E-2,1.8338023E-2,-8.773799E-3,3.3036128E-2,2.5131164E-2,-2.2855361E-3,2.7002377E-2,7.506805E-2],"split_indices":[0,0,4,3,4,1,3,0,0,0,0,0,0,0,0],"split_type":[0,0,0,0,0,0,0,0,0,0,0,0,0,0,0],"sum_hessian":[9.644371E2,6.943861E2,2.7005093E2,3.6296795E1,6.580893E2,2.1064812E2,5.9402817E1,3.3278175E1,3.0186205E0,6.0395074E2,5.413857E1,1.13780304E2,9.686782E1,3.3201283E1,2.6201532E1],"tree_param":{"num_deleted":"0","num_feature":"5","num_nodes":"15","size_leaf_vector":"1"}},{"base_weights":[4.3256045E-4,-2.1362284E-1,6.869888E-2,-5.329567E-1,-1.5676813E-1,3.5672966E-2,4.5964912E-1,-6.357415E-2,6.4903907E-6,-1.2011431E-2,-6.427919E-2,-1.6975372E-4,3.265551E-2,3.241188E-2,7.88802E-2],"categories":[],"categories_nodes":[],"categories_segments":[],"categories_sizes":[],"default_left":[0,0,0,0,0,0,0,0,0,0,0,0,0,0,0],"id":13,"left_children":[1,3,5,7,9,11,13,-1,-1,-1,-1,-1,-1,-1,-1],"loss_changes":[1.4078939E1,4.1461725E0,9.415361E0,1.9062204E0,3.4710612E0,7.3345547E0,2.279004E0,0E0,0E0,0E0,0E0,0E0,0E0,0E0,0E0],"parents":[2147483647,0,0,1,1,2,2,3,3,4,4,5,5,6,6],"right_children":[2,4,6,8,10,12,14,-1,-1,-1,-1,-1,-1,-1,-1],"split_conditions":[2.87E0,2.36E0,8.5E0,8.6E0,2.85E0,3.88E0,5E0,-6.357415E-2,6.4903907E-6,-1.2011431E-2,-6.427919E-2,-1.6975372E-4,3.265551E-2,3.241188E-2,7.88802E-2],"split_indices":[0,0,4,4,0,0,2,0,0,0,0,0,0,0,0],"split_type":[0,0,0,0,0,0,0,0,0,0,0,0,0,0,0],"sum_hessian":[9.614637E2,2.3197021E2,7.2949347E2,3.3792885E1,1.9817732E2,6.736753E2,5.581815E1,2.8168354E1,5.624533E0,1.8543942E2,1.2737905E1,5.9786053E2,7.581477E1,4.094397E1,1.487418E1],"tree_param":{"num_deleted":"0","num_feature":"5","num_nodes":"15","size_leaf_vector":"1"}},{"base_weights":[3.947525E-4,-6.5075375E-2,1.885563E-1,-3.4189543E-1,-2.9051406E-2,1.2817107E-1,5.0339574E-1,-9.446966E-2,-2.7180994E-2,-4.534954E-3,6.66829E-2,8.611772E-2,1.0425061E-2,1.9044241E-2,8.0683075E-2],"categories":[],"categories_nodes":[],"categories_segments":[],"categories_sizes":[],"default_left":[0,0,0,0,0,0,0,0,0,0,0,0,0,0,0],"id":14,"left_children":[1,3,5,7,9,11,13,-1,-1,-1,-1,-1,-1,-1,-1],"loss_changes":[1.1835166E1,7.0976114E0,4.6502314E0,3.2066364E0,7.1953764E0,3.5822415E0,3.6037722E0,0E0,0E0,0E0,0E0,0E0,0E0,0E0,0E0],"parents":[2147483647,0,0,1,1,2,2,3,3,4,4,5,5,6,6],"right_children":[2,4,6,8,10,12,14,-1,-1,-1,-1,-1,-1,-1,-1],"split_conditions":[4.7E0,2.56E0,6.9E0,5.9E0,9.6E0,3.16E0,5.6E0,-9.446966E-2,-2.7180994E-2,-4.534954E-3,6.66829E-2,8.611772E-2,1.0425061E-2,1.9044241E-2,8.0683075E-2],"split_indices":[2,0,4,1,4,0,2,0,0,0,0,0,0,0,0],"split_type":[0,0,0,0,0,0,0,0,0,0,0,0,0,0,0],"sum_hessian":[9.5873157E2,7.117388E2,2.4699278E2,8.0978966E1,6.307598E2,2.0842468E2,3.8568104E1,7.134692E0,7.384428E1,6.1723834E2,1.3521436E1,5.480529E0,2.0294415E2,1.9787506E1,1.8780596E1],"tree_param":{"num_deleted":"0","num_feature":"5","num_nodes":"15","size_leaf_vector":"1"}},{"base_weights":[5.1487243E-4,-1.5140446E-1,7.114644E-2,-1.9235608E-1,1.9710368E-1,1.0616226E-2,2.3742229E-1,-2.4147682E-2,2.0718796E-2,4.943061E-2,-1.5449518E-2,-2.7163638E-2,4.739094E-3,1.9526407E-2,7.148074E-2],"categories":[],"categories_nodes":[],"categories_segments":[],"categories_sizes":[],"default_left":[0,0,0,0,0,0,0,0,0,0,0,0,0,0,0],"id":15,"left_children":[1,3,5,7,9,11,13,-1,-1,-1,-1,-1,-1,-1,-1],"loss_changes":[1.0283436E1,4.378829E0,6.581757E0,5.401635E0,3.4699726E0,5.0018945E0,3.373269E0,0E0,0E0,0E0,0E0,0E0,0E0,0E0,0E0],"parents":[2147483647,0,0,1,1,2,2,3,3,4,4,5,5,6,6],"right_children":[2,4,6,8,10,12,14,-1,-1,-1,-1,-1,-1,-1,-1],"split_conditions":[2.9E0,3.12E0,5.2E0,8.2E0,3E0,6E0,3.99E0,-2.4147682E-2,2.0718796E-2,4.943061E-2,-1.5449518E-2,-2.7163638E-2,4.739094E-3,1.9526407E-2,7.148074E-2],"split_indices":[2,0,4,4,3,1,0,0,0,0,0,0,0,0,0],"split_type":[0,0,0,0,0,0,0,0,0,0,0,0,0,0,0],"sum_hessian":[9.563509E2,3.0315668E2,6.531942E2,2.7168076E2,3.147592E1,4.7964905E2,1.7354517E2,2.4228891E2,2.939186E1,1.6837498E1,1.4638422E1,5.4553627E1,4.2509543E2,1.6075758E2,1.2787589E1],"tree_param":{"num_deleted":"0","num_feature":"5","num_nodes":"15","size_leaf_vector":"1"}},{"base_weights":[5.713512E-4,-6.0064245E-2,1.5715243E-1,-1.6522634E-1,1.7590344E-2,9.5061935E-2,3.8307583E-1,-4.6884183E-2,-1.2668102E-2,-1.8845819E-2,1.1326664E-2,-2.6685813E-2,1.4085131E-2,1.7100124E-2,6.410827E-2],"categories":[],"categories_nodes":[],"categories_segments":[],"categories_sizes":[],"default_left":[0,0,0,0,0,0,0,0,0,0,0,0,0,0,0],"id":16,"left_children":[1,3,5,7,9,11,13,-1,-1,-1,-1,-1,-1,-1,-1],"loss_changes":[9.076536E0,5.6305943E0,3.7070365E0,3.3674412E0,7.8540173E0,3.5286834E0,3.0201902E0,0E0,0E0,0E0,0E0,0E0,0E0,0E0,0E0],"parents":[2147483647,0,0,1,1,2,2,3,3,4,4,5,5,6,6],"right_children":[2,4,6,8,10,12,14,-1,-1,-1,-1,-1,-1,-1,-1],"split_conditions":[3.49E0,6.7E0,5.9E0,6E-1,2.4E0,6E0,2.7E0,-4.6884183E-2,-1.2668102E-2,-1.8845819E-2,1.1326664E-2,-2.6685813E-2,1.4085131E-2,1.7100124E-2,6.410827E-2],"split_indices":[0,1,4,3,2,1,3,0,0,0,0,0,0,0,0],"split_type":[0,0,0,0,0,0,0,0,0,0,0,0,0,0,0],"sum_hessian":[9.539955E2,6.881339E2,2.6586157E2,2.918179E2,3.96316E2,2.0966118E2,5.6200382E1,3.1616478E1,2.6020142E2,1.2536345E2,2.7095255E2,2.3004581E1,1.866566E2,3.1758518E1,2.4441864E1],"tree_param":{"num_deleted":"0","num_feature":"5","num_nodes":"15","size_leaf_vector":"1"}},{"base_weights":[5.317945E-4,-5.1728215E-2,1.516172E-1,-6.5110594E-2,5.090279E-1,8.893813E-1,1.2748133E-1,-4.5841224E-2,-4.640911E-3,-2.1734051E-3,7.808011E-2,1.267131E-1,-3.879669E-2,3.1002357E-3,2.9803513E-2],"categories":[],"categories_nodes":[],"categories_segments":[],"categories_sizes":[],"default_left":[0,0,0,0,0,0,0,0,0,0,0,0,0,0,0],"id":17,"left_children":[1,3,5,7,9,11,13,-1,-1,-1,-1,-1,-1,-1,-1],"loss_changes":[7.531367E0,5.351555E0,4.2517357E0,5.0766068E0,2.416184E0,4.157956E0,3.9159389E0,0E0,0E0,0E0,0E0,0E0,0E0,0E0,0E0],"parents":[2147483647,0,0,1,1,2,2,3,3,4,4,5,5,6,6],"right_children":[2,4,6,8,10,12,14,-1,-1,-1,-1,-1,-1,-1,-1],"split_conditions":[4.7E0,9.6E0,3.16E0,2.36E0,2.87E0,3.5E0,3.84E0,-4.5841224E-2,-4.640911E-3,-2.1734051E-3,7.808011E-2,1.267131E-1,-3.879669E-2,3.1002357E-3,2.9803513E-2],"split_indices":[2,4,0,0,0,3,0,0,0,0,0,0,0,0,0],"split_type":[0,0,0,0,0,0,0,0,0,0,0,0,0,0,0],"sum_hessian":[9.518605E2,7.077198E2,2.4414064E2,6.920871E2,1.5632692E1,6.5983734E0,2.3754227E2,3.03477E1,6.6173944E2,5.6054688E0,1.0027224E1,5.098573E0,1.4998003E0,1.5247302E2,8.506925E1],"tree_param":{"num_deleted":"0","num_feature":"5","num_nodes":"15","size_leaf_vector":"1"}},{"base_weights":[6.388668E-4,-7.265564E-2,9.5928125E-2,-8.0174536E-2,1.0830756E0,4.8404686E-2,3.06109E-1,-4.3079663E-2,-5.804904E-3,1.3979651E-1,2.3803454E-2,-9.016354E-3,1.19608035E-2,9.238989E-2,1.9370588E-2],"categories":[],"categories_nodes":[],"categories_segments":[],"categories_sizes":[],"default_left":[0,0,0,0,0,0,0,0,0,0,0,0,0,0,0],"id":18,"left_children":[1,3,5,7,9,11,13,-1,-1,-1,-1,-1,-1,-1,-1],"loss_changes":[6.648126E0,4.762323E0,4.1188703E0,4.129197E0,6.109834E-1,3.3527174E0,5.107578E0,0E0,0E0,0E0,0E0,0E0,0E0,0E0,0E0],"parents":[2147483647,0,0,1,1,2,2,3,3,4,4,5,5,6,6],"right_children":[2,4,6,8,10,12,14,-1,-1,-1,-1,-1,-1,-1,-1],"split_conditions":[3.3E0,8.7E0,7.5E0,2.36E0,8.9E0,4.4E0,9E-1,-4.3079663E-2,-5.804904E-3,1.3979651E-1,2.3803454E-2,-9.016354E-3,1.19608035E-2,9.238989E-2,1.9370588E-2],"split_indices":[0,1,1,0,1,2,3,0,0,0,0,0,0,0,0],"split_type":[0,0,0,0,0,0,0,0,0,0,0,0,0,0,0],"sum_hessian":[9.498857E2,5.370419E2,4.1284384E2,5.344952E2,2.5466611E0,3.3771442E2,7.512941E1,3.0630114E1,5.0386508E2,1.3786252E0,1.168036E0,1.1454096E2,2.2317346E2,1.0453793E1,6.467562E1],"tree_param":{"num_deleted":"0","num_feature":"5","num_nodes":"15","size_leaf_vector":"1"}},{"base_weights":[8.1255287E-4,-4.9447197E-2,1.3528481E-1,-3.705952E-1,-2.2567341E-2,6.751318E-2,3.724008E-1,-4.986474E-3,-5.3697485E-2,1.022693E-3,-1.6830912E-2,2.31854E-3,5.653412E-2,6.271331E-2,9.801292E-4],"categories":[],"categories_nodes":[],"categories_segments":[],"categories_sizes":[],"default_left":[0,0,0,0,0,0,0,0,0,0,0,0,0,0,0],"id":19,"left_children":[1,3,5,7,9,11,13,-1,-1,-1,-1,-1,-1,-1,-1],"loss_changes":[6.4209437E0,5.9616585E0,4.128509E0,2.820108E0,3.0569313E0,4.449909E0,5.280296E0,0E0,0E0,0E0,0E0,0E0,0E0,0E0,0E0],"parents":[2147483647,0,0,1,1,2,2,3,3,4,4,5,5,6,6],"right_children":[2,4,6,8,10,12,14,-1,-1,-1,-1,-1,-1,-1,-1],"split_conditions":[5.1E0,2.54E0,7.4E0,1.7E0,4.2E0,3.89E0,3E0,-4.986474E-3,-5.3697485E-2,1.022693E-3,-1.6830912E-2,2.31854E-3,5.653412E-2,6.271331E-2,9.801292E-4],"split_indices":[4,0,1,3,3,0,3,0,0,0,0,0,0,0,0],"split_type":[0,0,0,0,0,0,0,0,0,0,0,0,0,0,0],"sum_hessian":[9.480588E2,6.9058215E2,2.5747662E2,5.234936E1,6.382328E2,2.0124286E2,5.6233772E1,1.8324635E1,3.4024727E1,5.217585E2,1.1647433E2,1.8574982E2,1.54930315E1,3.2601276E1,2.3632498E1],"tree_param":{"num_deleted":"0","num_feature":"5","num_nodes":"15","size_leaf_vector":"1"}},{"base_weights":[7.834835E-4,-3.654198E-2,1.5269119E-1,-2.0108922E-1,1.3092775E-2,6.777423E-2,4.3709326E-1,-2.1684388E-2,6.67673E-2,-1.960293E-2,4.074179E-3,2.6778574E-3,6.482831E-2,9.569036E-2,2.9169867E-2],"categories":[],"categories_nodes":[],"categories_segments":[],"categories_sizes":[],"default_left":[0,0,0,0,0,0,0,0,0,0,0,0,0,0,0],"id":20,"left_children":[1,3,5,7,9,11,13,-1,-1,-1,-1,-1,-1,-1,-1],"loss_changes":[5.3773255E0,6.220624E0,4.4880433E0,2.5604458E0,3.3953154E0,3.4389944E0,2.957674E0,0E0,0E0,0E0,0E0,0E0,0E0,0E0,0E0],"parents":[2147483647,0,0,1,1,2,2,3,3,4,4,5,5,6,6],"right_children":[2,4,6,8,10,12,14,-1,-1,-1,-1,-1,-1,-1,-1],"split_conditions":[6.4E0,2.5E0,7.4E0,8.5E0,6E0,3.99E0,1.3E0,-2.1684388E-2,6.67673E-2,-1.960293E-2,4.074179E-3,2.6778574E-3,6.482831E-2,9.569036E-2,2.9169867E-2],"split_indices":[4,2,1,1,1,0,3,0,0,0,0,0,0,0,0],"split_type":[0,0,0,0,0,0,0,0,0,0,0,0,0,0,0],"sum_hessian":[9.463937E2,7.6033105E2,1.8606262E2,1.7549277E2,5.848383E2,1.442351E2,4.182751E1,1.73104E2,2.3887718E0,6.758352E1,5.1725476E2,1.3569821E2,8.536905E0,7.9223475E0,3.3905163E1],"tree_param":{"num_deleted":"0","num_feature":"5","num_nodes":"15","size_leaf_vector":"1"}},{"base_weights":[9.4887166E-4,-1.980416E-2,2.3781793E-1,-5.4056443E-2,1.1857835E-1,3.315948E-1,-2.568068E-1,-1.9689588E-2,-1.4474543E-3,8.058432E-2,8.231043E-3,1.9276034E-2,7.1363375E-2,-6.6854045E-2,4.704875E-2],"categories":[],"categories_nodes":[],"categories_segments":[],"categories_sizes":[],"default_left":[0,0,0,0,0,0,0,0,0,0,0,0,0,0,0],"id":21,"left_children":[1,3,5,7,9,11,13,-1,-1,-1,-1,-1,-1,-1,-1],"loss_changes":[4.6530495E0,4.1317987E0,3.6219993E0,3.9455316E0,4.2457724E0,3.2853727E0,4.122386E0,0E0,0E0,0E0,0E0,0E0,0E0,0E0,0E0],"parents":[2147483647,0,0,1,1,2,2,3,3,4,4,5,5,6,6],"right_children":[2,4,6,8,10,12,14,-1,-1,-1,-1,-1,-1,-1,-1],"split_conditions":[3.89E0,6.4E0,4.2E0,2.3E0,6.6E0,7.3E0,4.6E0,-1.9689588E-2,-1.4474543E-3,8.058432E-2,8.231043E-3,1.9276034E-2,7.1363375E-2,-6.6854045E-2,4.704875E-2],"split_indices":[0,4,3,2,4,1,3,0,0,0,0,0,0,0,0],"split_type":[0,0,0,0,0,0,0,0,0,0,0,0,0,0,0],"sum_hessian":[9.4460114E2,8.693503E2,7.525081E1,6.973519E2,1.7199838E2,6.3534737E1,1.1716069E1,1.504495E2,5.469024E2,7.557987E0,1.644404E2,4.7703613E1,1.5831123E1,7.53255E0,4.18352E0],"tree_param":{"num_deleted":"0","num_feature":"5","num_nodes":"15","size_leaf_vector":"1"}},{"base_weights":[1.0191003E-3,-1.88465E-2,2.2809732E-1,-8.1829935E-2,6.4172335E-2,6.56794E-1,1.3793509E-1,-8.881236E-3,1.1387278E-1,-1.7481474E-2,8.751612E-3,1.5109854E-2,1.0011549E-1,-2.9035492E-2,2.8075585E-2],"categories":[],"categories_nodes":[],"categories_segments":[],"categories_sizes":[],"default_left":[0,0,0,0,0,0,0,0,0,0,0,0,0,0,0],"id":22,"left_children":[1,3,5,7,9,11,13,-1,-1,-1,-1,-1,-1,-1,-1],"loss_changes":[4.261993E0,4.5482183E0,2.8471355E0,4.315232E0,2.1094017E0,2.1023664E0,4.000152E0,0E0,0E0,0E0,0E0,0E0,0E0,0E0,0E0],"parents":[2147483647,0,0,1,1,2,2,3,3,4,4,5,5,6,6],"right_children":[2,4,6,8,10,12,14,-1,-1,-1,-1,-1,-1,-1,-1],"split_conditions":[8.5E0,3.31E0,8E-1,8.7E0,5.9E0,6.9E0,1.9E0,-8.881236E-3,1.1387278E-1,-1.7481474E-2,8.751612E-3,1.5109854E-2,1.0011549E-1,-2.9035492E-2,2.8075585E-2],"split_indices":[4,0,3,1,1,1,3,0,0,0,0,0,0,0,0],"split_type":[0,0,0,0,0,0,0,0,0,0,0,0,0,0,0],"sum_hessian":[9.4283765E2,8.6783356E2,7.500413E1,4.9346985E2,3.7436368E2,1.1941409E1,6.3062717E1,4.9158487E2,1.8849671E0,3.2735744E1,3.4162796E2,5.420362E0,6.521047E0,1.5512108E1,4.755061E1],"tree_param":{"num_deleted":"0","num_feature":"5","num_nodes":"15","size_leaf_vector":"1"}},{"base_weights":[1.156755E-3,-3.5077968E-1,1.2905528E-2,-6.257666E-1,-8.0410205E-2,-2.2376345E-2,1.3108408E-1,2.0909256E-3,-9.125992E-2,7.893514E-2,-3.300285E-2,9.6319115E-4,-1.6628062E-2,1.1665926E-1,1.1583307E-2],"categories":[],"categories_nodes":[],"categories_segments":[],"categories_sizes":[],"default_left":[0,0,0,0,0,0,0,0,0,0,0,0,0,0,0],"id":23,"left_children":[1,3,5,7,9,11,13,-1,-1,-1,-1,-1,-1,-1,-1],"loss_changes":[3.9012663E0,2.2158234E0,3.8094926E0,2.7946477E0,3.846393E0,3.2438598E0,3.1819155E0,0E0,0E0,0E0,0E0,0E0,0E0,0E0,0E0],"parents":[2147483647,0,0,1,1,2,2,3,3,4,4,5,5,6,6],"right_children":[2,4,6,8,10,12,14,-1,-1,-1,-1,-1,-1,-1,-1],"split_conditions":[2.36E0,2.3E0,5.8E0,2.12E0,2.8E0,4.2E0,6E-1,2.0909256E-3,-9.125992E-2,7.893514E-2,-3.300285E-2,9.6319115E-4,-1.6628062E-2,1.1665926E-1,1.1583307E-2],"split_indices":[0,3,4,0,3,3,2,0,0,0,0,0,0,0,0],"split_type":[0,0,0,0,0,0,0,0,0,0,0,0,0,0,0],"sum_hessian":[9.414203E2,2.948017E1,9.119401E2,1.3963605E1,1.5516565E1,7.029015E2,2.090386E2,4.575364E0,9.388241E0,2.9779744E0,1.253859E1,5.75768E2,1.2713353E2,1.9383204E0,2.0710028E2],"tree_param":{"num_deleted":"0","num_feature":"5","num_nodes":"15","size_leaf_vector":"1"}},{"base_weights":[1.0851796E-3,-1.7074637E-2,2.0967042E-1,-3.237661E-1,-6.0933884E-3,1.1758446E-1,6.53061E-1,-4.110984E-2,3.941045E-2,5.123917E-2,-1.356372E-3,1.905206E-2,-1.2190211E-1,9.91658E-2,-3.6530923E-2],"categories":[],"categories_nodes":[],"categories_segments":[],"categories_sizes":[],"default_left":[0,0,0,0,0,0,0,0,0,0,0,0,0,0,0],"id":24,"left_children":[1,3,5,7,9,11,13,-1,-1,-1,-1,-1,-1,-1,-1],"loss_changes":[3.569033E0,2.917351E0,3.0043163E0,2.0393593E0,3.2522542E0,6.4425673E0,4.761294E0,0E0,0E0,0E0,0E0,0E0,0E0,0E0,0E0],"parents":[2147483647,0,0,1,1,2,2,3,3,4,4,5,5,6,6],"right_children":[2,4,6,8,10,12,14,-1,-1,-1,-1,-1,-1,-1,-1],"split_conditions":[3.89E0,2.36E0,6.8E0,1.8E0,6E-1,6.7E0,7.5E0,-4.110984E-2,3.941045E-2,5.123917E-2,-1.356372E-3,1.905206E-2,-1.2190211E-1,9.91658E-2,-3.6530923E-2],"split_indices":[0,0,2,2,2,2,2,0,0,0,0,0,0,0,0],"split_type":[0,0,0,0,0,0,0,0,0,0,0,0,0,0,0],"sum_hessian":[9.4028174E2,8.6581995E2,7.446175E1,2.8944883E1,8.3687506E2,6.270417E1,1.1757578E1,2.6186508E1,2.7583745E0,1.0926427E1,8.2594867E2,6.027266E1,2.4315102E0,8.843455E0,2.9141226E0],"tree_param":{"num_deleted":"0","num_feature":"5","num_nodes":"15","size_leaf_vector":"1"}},{"base_weights":[9.917504E-4,-1.6657734E-2,2.0434234E-1,-3.387819E-1,-3.8946527E-3,5.7422608E-2,4.2996907E-1,-4.3262545E-2,2.4926873E-2,2.437562E-3,-1.2993248E-2,2.5016477E-2,-2.1054436E-2,8.328172E-2,1.7798228E-2],"categories":[],"categories_nodes":[],"categories_segments":[],"categories_sizes":[],"default_left":[0,0,0,0,0,0,0,0,0,0,0,0,0,0,0],"id":25,"left_children":[1,3,5,7,9,11,13,-1,-1,-1,-1,-1,-1,-1,-1],"loss_changes":[3.3783503E0,3.5597885E0,2.4672375E0,1.9289205E0,2.975441E0,2.4637141E0,2.845552E0,0E0,0E0,0E0,0E0,0E0,0E0,0E0,0E0],"parents":[2147483647,0,0,1,1,2,2,3,3,4,4,5,5,6,6],"right_children":[2,4,6,8,10,12,14,-1,-1,-1,-1,-1,-1,-1,-1],"split_conditions":[8.5E0,2.41E0,3.8E0,1.8E0,4.2E0,3E0,3.37E0,-4.3262545E-2,2.4926873E-2,2.437562E-3,-1.2993248E-2,2.5016477E-2,-2.1054436E-2,8.328172E-2,1.7798228E-2],"split_indices":[4,0,2,2,3,3,0,0,0,0,0,0,0,0,0],"split_type":[0,0,0,0,0,0,0,0,0,0,0,0,0,0,0],"sum_hessian":[9.393497E2,8.651762E2,7.4173485E1,3.1999714E1,8.331765E2,4.5681744E1,2.8491745E1,2.7823786E1,4.1759286E0,6.8119183E2,1.5198466E2,2.660898E1,1.9072762E1,1.0076911E1,1.8414833E1],"tree_param":{"num_deleted":"0","num_feature":"5","num_nodes":"15","size_leaf_vector":"1"}},{"base_weights":[9.7423396E-4,-3.375249E-3,7.413719E-1,-3.9169952E-2,8.965323E-2,1.2072972E-1,-9.640075E-3,-2.1312868E-3,-5.5672478E-2,1.946373E-2,-3.2891955E-3],"categories":[],"categories_nodes":[],"categories_segments":[],"categories_sizes":[],"default_left":[0,0,0,0,0,0,0,0,0,0,0],"id":26,"left_children":[1,3,5,7,9,-1,-1,-1,-1,-1,-1],"loss_changes":[3.0270963E0,3.1160731E0,2.2592466E0,6.23295E0,3.351708E0,0E0,0E0,0E0,0E0,0E0,0E0],"parents":[2147483647,0,0,1,1,2,2,3,3,4,4],"right_children":[2,4,6,8,10,-1,-1,-1,-1,-1,-1],"split_conditions":[8.7E0,3.49E0,8.9E0,5.2E0,6.9E0,1.2072972E-1,-9.640075E-3,-2.1312868E-3,-5.5672478E-2,1.946373E-2,-3.2891955E-3],"split_indices":[1,0,1,2,1,0,0,0,0,0,0],"split_type":[0,0,0,0,0,0,0,0,0,0,0],"sum_hessian":[9.3821356E2,9.337238E2,4.4897404E0,6.746982E2,2.5902567E2,2.6017203E0,1.8880199E0,6.532021E2,2.1496109E1,1.3919202E2,1.1983364E2],"tree_param":{"num_deleted":"0","num_feature":"5","num_nodes":"11","size_leaf_vector":"1"}},{"base_weights":[9.6124265E-4,-7.1408725E-3,3.7720537E-1,-1.1438813E-2,7.7311754E-1,1.06568955E-1,2.3190649E-1,-4.5036986E-3,8.599276E-3,1.12592034E-1,-5.174924E-3,-4.5922056E-2,4.9228605E-2],"categories":[],"categories_nodes":[],"categories_segments":[],"categories_sizes":[],"default_left":[0,0,0,0,0,0,0,0,0,0,0,0,0],"id":27,"left_children":[1,3,5,7,9,-1,11,-1,-1,-1,-1,-1,-1],"loss_changes":[2.8642423E0,3.093754E0,1.7342618E0,3.0019364E0,1.5290551E0,0E0,3.3992908E0,0E0,0E0,0E0,0E0,0E0,0E0],"parents":[2147483647,0,0,1,1,2,2,3,3,4,4,6,6],"right_children":[2,4,6,8,10,-1,12,-1,-1,-1,-1,-1,-1],"split_conditions":[9.6E0,8.7E0,6E-1,4.7E0,8.9E0,1.06568955E-1,2.87E0,-4.5036986E-3,8.599276E-3,1.12592034E-1,-5.174924E-3,-4.5922056E-2,4.9228605E-2],"split_indices":[4,1,3,2,1,0,0,0,0,0,0,0,0],"split_type":[0,0,0,0,0,0,0,0,0,0,0,0,0],"sum_hessian":[9.377134E2,9.189065E2,1.8806892E1,9.148525E2,4.053993E0,2.1735027E0,1.663339E1,6.806692E2,2.341833E2,2.5838747E0,1.4701183E0,4.342748E0,1.2290642E1],"tree_param":{"num_deleted":"0","num_feature":"5","num_nodes":"13","size_leaf_vector":"1"}},{"base_weights":[1.1154631E-3,-7.002297E-2,4.221582E-2,-1.4394103E-2,-3.8197833E-1,2.0423198E-2,3.2256034E-1,-3.1564694E-2,2.2918938E-3,7.298212E-2,-4.712839E-2,6.0232296E-3,-2.5338238E-2,4.4693258E-2,-4.485447E-2],"categories":[],"categories_nodes":[],"categories_segments":[],"categories_sizes":[],"default_left":[0,0,0,0,0,0,0,0,0,0,0,0,0,0,0],"id":28,"left_children":[1,3,5,7,9,11,13,-1,-1,-1,-1,-1,-1,-1,-1],"loss_changes":[2.74434E0,5.9592314E0,3.627861E0,3.2977948E0,5.504782E0,6.0434766E0,4.3090754E0,0E0,0E0,0E0,0E0,0E0,0E0,0E0,0E0],"parents":[2147483647,0,0,1,1,2,2,3,3,4,4,5,5,6,6],"right_children":[2,4,6,8,10,12,14,-1,-1,-1,-1,-1,-1,-1,-1],"split_conditions":[6.6E0,6.5E0,6E0,6E-1,4E-1,3.64E0,4.4E0,-3.1564694E-2,2.2918938E-3,7.298212E-2,-4.712839E-2,6.0232296E-3,-2.5338238E-2,4.4693258E-2,-4.485447E-2],"split_indices":[1,1,2,3,3,0,3,0,0,0,0,0,0,0,0],"split_type":[0,0,0,0,0,0,0,0,0,0,0,0,0,0,0],"sum_hessian":[9.3660516E2,3.4271472E2,5.9389044E2,2.9173734E2,5.097738E1,5.520497E2,4.1840805E1,3.1330011E1,2.6040732E2,3.2570407E0,4.7720337E1,4.8265552E2,6.939415E1,3.6391575E1,5.44923E0],"tree_param":{"num_deleted":"0","num_feature":"5","num_nodes":"15","size_leaf_vector":"1"}},{"base_weights":[9.938774E-4,-3.153009E-2,8.887336E-2,-2.2609995E-1,-8.759144E-3,3.4362193E-2,2.82489E-1,-1.5939651E-2,-9.944487E-2,-1.555344E-2,2.722276E-3,3.4073222E-2,-1.8180993E-3,5.0666284E-2,-2.8062407E-3],"categories":[],"categories_nodes":[],"categories_segments":[],"categories_sizes":[],"default_left":[0,0,0,0,0,0,0,0,0,0,0,0,0,0,0],"id":29,"left_children":[1,3,5,7,9,11,13,-1,-1,-1,-1,-1,-1,-1,-1],"loss_changes":[2.6825945E0,3.0331936E0,2.6660676E0,3.5179453E0,3.2486334E0,3.2091086E0,3.8820949E0,0E0,0E0,0E0,0E0,0E0,0E0,0E0,0E0],"parents":[2147483647,0,0,1,1,2,2,3,3,4,4,5,5,6,6],"right_children":[2,4,6,8,10,12,14,-1,-1,-1,-1,-1,-1,-1,-1],"split_conditions":[5.1E0,1.7E0,7.4E0,2.95E0,1.1E0,8E-1,3E0,-1.5939651E-2,-9.944487E-2,-1.555344E-2,2.722276E-3,3.4073222E-2,-1.8180993E-3,5.0666284E-2,-2.8062407E-3],"split_indices":[4,2,1,0,3,3,3,0,0,0,0,0,0,0,0],"split_type":[0,0,0,0,0,0,0,0,0,0,0,0,0,0,0],"sum_hessian":[9.3658405E2,6.840574E2,2.5252666E2,7.073363E1,6.133237E2,1.9796768E2,5.455897E1,6.619447E1,4.539155E0,1.20099266E2,4.9322446E2,2.8178577E1,1.6978911E2,3.1319363E1,2.3239609E1],"tree_param":{"num_deleted":"0","num_feature":"5","num_nodes":"15","size_leaf_vector":"1"}},{"base_weights":[8.465114E-4,-9.169808E-2,2.9562853E-2,-6.1563756E-2,-5.533667E-1,2.0020982E-2,5.096741E-1,-5.1820736E-2,-3.541744E-3,2.4284024E-2,-7.062545E-2,6.2911864E-4,1.9620705E-2,1.3443356E-3,7.26176E-2],"categories":[],"categories_nodes":[],"categories_segments":[],"categories_sizes":[],"default_left":[0,0,0,0,0,0,0,0,0,0,0,0,0,0,0],"id":30,"left_children":[1,3,5,7,9,11,13,-1,-1,-1,-1,-1,-1,-1,-1],"loss_changes":[2.4917417E0,3.0549998E0,3.2678409E0,2.4837234E0,1.8124361E0,1.6984657E0,1.4839075E0,0E0,0E0,0E0,0E0,0E0,0E0,0E0,0E0],"parents":[2147483647,0,0,1,1,2,2,3,3,4,4,5,5,6,6],"right_children":[2,4,6,8,10,12,14,-1,-1,-1,-1,-1,-1,-1,-1],"split_conditions":[2.87E0,2.85E0,9.6E0,3E-1,6.2E0,3.99E0,6.6E0,-5.1820736E-2,-3.541744E-3,2.4284024E-2,-7.062545E-2,6.2911864E-4,1.9620705E-2,1.3443356E-3,7.26176E-2],"split_indices":[0,0,4,3,1,0,1,0,0,0,0,0,0,0,0],"split_type":[0,0,0,0,0,0,0,0,0,0,0,0,0,0,0],"sum_hessian":[9.355914E2,2.2104218E2,7.145492E2,2.0856212E2,1.2480046E1,7.016462E2,1.290302E1,1.0275834E1,1.9828629E2,1.9156079E0,1.0564439E1,6.5188214E2,4.976404E1,4.2420864E0,8.6609335E0],"tree_param":{"num_deleted":"0","num_feature":"5","num_nodes":"15","size_leaf_vector":"1"}},{"base_weights":[7.594E-4,-1.2593576E-2,1.8025768E-1,-5.652934E-2,4.4648796E-2,9.308192E-2,8.15749E-1,-4.064742E-3,-4.173527E-2,1.5705556E-3,2.5461642E-2,1.8264296E-2,-8.0715865E-2,4.1471347E-2,1.11967914E-1],"categories":[],"categories_nodes":[],"categories_segments":[],"categories_sizes":[],"default_left":[0,0,0,0,0,0,0,0,0,0,0,0,0,0,0],"id":31,"left_children":[1,3,5,7,9,11,13,-1,-1,-1,-1,-1,-1,-1,-1],"loss_changes":[2.2446086E0,2.1948364E0,3.5162754E0,2.811714E0,2.2997658E0,4.8357563E0,4.7334337E-1,0E0,0E0,0E0,0E0,0E0,0E0,0E0,0E0],"parents":[2147483647,0,0,1,1,2,2,3,3,4,4,5,5,6,6],"right_children":[2,4,6,8,10,12,14,-1,-1,-1,-1,-1,-1,-1,-1],"split_conditions":[7.9E0,3.3E0,3.83E0,3.27E0,7.5E0,5.3E0,3.3E0,-4.064742E-3,-4.173527E-2,1.5705556E-3,2.5461642E-2,1.8264296E-2,-8.0715865E-2,4.1471347E-2,1.11967914E-1],"split_indices":[1,0,0,0,1,2,3,0,0,0,0,0,0,0,0],"split_type":[0,0,0,0,0,0,0,0,0,0,0,0,0,0,0],"sum_hessian":[9.34541E2,8.7069904E2,6.384194E1,4.9261227E2,3.7808676E2,5.7148823E1,6.693119E0,4.7290945E2,1.9702824E1,3.3322745E2,4.485934E1,5.270277E1,4.4460526E0,3.9049907E0,2.7881284E0],"tree_param":{"num_deleted":"0","num_feature":"5","num_nodes":"15","size_leaf_vector":"1"}},{"base_weights":[7.7186717E-4,-1.3307878E-2,1.6552663E-1,-2.9371026E-1,-2.5011676E-3,7.136424E-1,9.924562E-2,-1.9674515E-2,-9.7898714E-2,5.157978E-2,-8.4745325E-4,1.3157147E-2,1.1328732E-1,-6.283765E-2,1.7469231E-2],"categories":[],"categories_nodes":[],"categories_segments":[],"categories_sizes":[],"default_left":[0,0,0,0,0,0,0,0,0,0,0,0,0,0,0],"id":32,"left_children":[1,3,5,7,9,11,13,-1,-1,-1,-1,-1,-1,-1,-1],"loss_changes":[2.1708727E0,2.611962E0,2.6059034E0,1.9329195E0,2.57783E0,1.7511289E0,3.7819183E0,0E0,0E0,0E0,0E0,0E0,0E0,0E0,0E0],"parents":[2147483647,0,0,1,1,2,2,3,3,4,4,5,5,6,6],"right_children":[2,4,6,8,10,12,14,-1,-1,-1,-1,-1,-1,-1,-1],"split_conditions":[8.5E0,2.41E0,6E0,6.8E0,6E-1,5.8E0,6.2E0,-1.9674515E-2,-9.7898714E-2,5.157978E-2,-8.4745325E-4,1.3157147E-2,1.1328732E-1,-6.283765E-2,1.7469231E-2],"split_indices":[4,0,1,4,2,1,1,0,0,0,0,0,0,0,0],"split_type":[0,0,0,0,0,0,0,0,0,0,0,0,0,0,0],"sum_hessian":[9.338904E2,8.612115E2,7.267889E1,3.0987907E1,8.302236E2,6.786929E0,6.589195E1,2.8274267E1,2.7136402E0,8.486819E0,8.2173676E2,3.391677E0,3.3952525E0,5.501894E0,6.039006E1],"tree_param":{"num_deleted":"0","num_feature":"5","num_nodes":"15","size_leaf_vector":"1"}},{"base_weights":[7.1160286E-4,-2.8606812E-3,6.161764E-1,-3.0647565E-2,7.254606E-2,1.0391656E-1,-1.1873431E-2,-2.5742192E-2,-1.2448974E-3,5.1508397E-3,4.9590867E-2],"categories":[],"categories_nodes":[],"categories_segments":[],"categories_sizes":[],"default_left":[0,0,0,0,0,0,0,0,0,0,0],"id":33,"left_children":[1,3,5,7,9,-1,-1,-1,-1,-1,-1],"loss_changes":[2.055584E0,1.9503409E0,1.8005605E0,2.8035429E0,2.206882E0,0E0,0E0,0E0,0E0,0E0,0E0],"parents":[2147483647,0,0,1,1,2,2,3,3,4,4],"right_children":[2,4,6,8,10,-1,-1,-1,-1,-1,-1],"split_conditions":[8.7E0,5.1E0,8.9E0,1.4E0,3.99E0,1.0391656E-1,-1.1873431E-2,-2.5742192E-2,-1.2448974E-3,5.1508397E-3,4.9590867E-2],"split_indices":[1,4,1,2,0,0,0,0,0,0,0],"split_type":[0,0,0,0,0,0,0,0,0,0,0],"sum_hessian":[9.3314307E2,9.287478E2,4.3952904E0,6.7909814E2,2.4964963E2,2.5268948E0,1.8683957E0,4.947243E1,6.2962573E2,2.3889992E2,1.0749706E1],"tree_param":{"num_deleted":"0","num_feature":"5","num_nodes":"11","size_leaf_vector":"1"}},{"base_weights":[7.7328173E-4,-5.989672E-2,3.5858653E-2,-9.526227E-3,-3.4264278E-1,2.0432115E-1,1.2385859E-3,-2.7652731E-2,2.327457E-3,6.876455E-2,-4.2574007E-2,-6.8489E-2,3.2067437E-2,-2.1607592E-3,3.0047396E-2],"categories":[],"categories_nodes":[],"categories_segments":[],"categories_sizes":[],"default_left":[0,0,0,0,0,0,0,0,0,0,0,0,0,0,0],"id":34,"left_children":[1,3,5,7,9,11,13,-1,-1,-1,-1,-1,-1,-1,-1],"loss_changes":[1.9883077E0,4.8711815E0,3.4513068E0,2.5596385E0,4.7210693E0,1.0657129E1,3.3695204E0,0E0,0E0,0E0,0E0,0E0,0E0,0E0,0E0],"parents":[2147483647,0,0,1,1,2,2,3,3,4,4,5,5,6,6],"right_children":[2,4,6,8,10,12,14,-1,-1,-1,-1,-1,-1,-1,-1],"split_conditions":[6.6E0,6.5E0,6.8E0,6E-1,4E-1,6E-1,6E0,-2.7652731E-2,2.327457E-3,6.876455E-2,-4.2574007E-2,-6.8489E-2,3.2067437E-2,-2.1607592E-3,3.0047396E-2],"split_indices":[1,1,1,3,3,3,2,0,0,0,0,0,0,0,0],"split_type":[0,0,0,0,0,0,0,0,0,0,0,0,0,0,0],"sum_hessian":[9.320698E2,3.4125714E2,5.908127E2,2.905331E2,5.0724045E1,9.988191E1,4.909308E2,3.0973759E1,2.5955936E2,3.2427964E0,4.7481247E1,1.0991883E1,8.889003E1,4.5696964E2,3.3961163E1],"tree_param":{"num_deleted":"0","num_feature":"5","num_nodes":"15","size_leaf_vector":"1"}},{"base_weights":[6.8852684E-4,-1.1284135E-2,1.6178243E-1,-1.7782992E-2,3.150344E-1,8.25668E-2,7.564919E-1,2.6551407E-4,-1.2641842E-2,9.842897E-2,1.661518E-2,1.6541071E-2,-7.4086994E-2,3.7341263E-2,1.0556352E-1],"categories":[],"categories_nodes":[],"categories_segments":[],"categories_sizes":[],"default_left":[0,0,0,0,0,0,0,0,0,0,0,0,0,0,0],"id":35,"left_children":[1,3,5,7,9,11,13,-1,-1,-1,-1,-1,-1,-1,-1],"loss_changes":[1.8004868E0,1.8484591E0,2.9799051E0,1.8941767E0,1.5325334E0,4.0867066E0,4.616604E-1,0E0,0E0,0E0,0E0,0E0,0E0,0E0,0E0],"parents":[2147483647,0,0,1,1,2,2,3,3,4,4,5,5,6,6],"right_children":[2,4,6,8,10,12,14,-1,-1,-1,-1,-1,-1,-1,-1],"split_conditions":[7.9E0,9.6E0,3.83E0,4.3E0,6E-1,5.3E0,3.3E0,2.6551407E-4,-1.2641842E-2,9.842897E-2,1.661518E-2,1.6541071E-2,-7.4086994E-2,3.7341263E-2,1.0556352E-1],"split_indices":[1,4,0,3,3,2,3,0,0,0,0,0,0,0,0],"split_type":[0,0,0,0,0,0,0,0,0,0,0,0,0,0,0],"sum_hessian":[9.315659E2,8.679862E2,6.3579662E1,8.519643E2,1.602195E1,5.7111248E1,6.468415E0,7.178812E2,1.3408308E2,1.894524E0,1.4127425E1,5.261673E1,4.4945164E0,3.822123E0,2.6462917E0],"tree_param":{"num_deleted":"0","num_feature":"5","num_nodes":"15","size_leaf_vector":"1"}},{"base_weights":[8.33926E-4,-2.402471E-3,5.6342727E-1,-2.4925837E-1,5.1332586E-3,9.664402E-2,-1.2037962E-2,-5.6346666E-2,-5.4343455E-3,7.157193E-2,3.4445413E-5],"categories":[],"categories_nodes":[],"categories_segments":[],"categories_sizes":[],"default_left":[0,0,0,0,0,0,0,0,0,0,0],"id":36,"left_children":[1,3,5,7,9,-1,-1,-1,-1,-1,-1],"loss_changes":[1.6987696E0,1.7274187E0,1.5869787E0,1.6540345E0,3.067107E0,0E0,0E0,0E0,0E0,0E0,0E0],"parents":[2147483647,0,0,1,1,2,2,3,3,4,4],"right_children":[2,4,6,8,10,-1,-1,-1,-1,-1,-1],"split_conditions":[8.7E0,2.36E0,8.9E0,1.9E0,2.39E0,9.664402E-2,-1.2037962E-2,-5.6346666E-2,-5.4343455E-3,7.157193E-2,3.4445413E-5],"split_indices":[1,0,1,3,0,0,0,0,0,0,0],"split_type":[0,0,0,0,0,0,0,0,0,0,0],"sum_hessian":[9.3124896E2,9.269125E2,4.3364644E0,2.6507317E1,9.0040515E2,2.4683676E0,1.8680968E0,9.424279E0,1.7083036E1,5.033632E0,8.953715E2],"tree_param":{"num_deleted":"0","num_feature":"5","num_nodes":"11","size_leaf_vector":"1"}},{"base_weights":[8.404347E-4,-7.407157E-2,2.3974871E-2,-4.5959555E-2,-5.065939E-1,1.6089907E-2,4.3741667E-1,-4.6215445E-2,-2.2732755E-3,-2.870888E-2,-1.250876E-1,1.651184E-2,2.9133182E-4,-3.5422107E-3,6.540539E-2],"categories":[],"categories_nodes":[],"categories_segments":[],"categories_sizes":[],"default_left":[0,0,0,0,0,0,0,0,0,0,0,0,0,0,0],"id":37,"left_children":[1,3,5,7,9,11,13,-1,-1,-1,-1,-1,-1,-1,-1],"loss_changes":[1.6168737E0,2.6534114E0,2.3166766E0,1.9983149E0,1.8194933E0,1.3750817E0,1.3857117E0,0E0,0E0,0E0,0E0,0E0,0E0,0E0,0E0],"parents":[2147483647,0,0,1,1,2,2,3,3,4,4,5,5,6,6],"right_children":[2,4,6,8,10,12,14,-1,-1,-1,-1,-1,-1,-1,-1],"split_conditions":[2.87E0,2.85E0,9.6E0,3E-1,7.2E0,2.95E0,6.6E0,-4.6215445E-2,-2.2732755E-3,-2.870888E-2,-1.250876E-1,1.651184E-2,2.9133182E-4,-3.5422107E-3,6.540539E-2],"split_indices":[0,0,4,3,4,0,1,0,0,0,0,0,0,0,0],"split_type":[0,0,0,0,0,0,0,0,0,0,0,0,0,0,0],"sum_hessian":[9.309412E2,2.1913966E2,7.118015E2,2.0680455E2,1.2335111E1,6.9949994E2,1.2301613E1,9.932328E0,1.9687222E2,1.05958805E1,1.7392306E0,5.588654E1,6.436134E2,4.1280656E0,8.173548E0],"tree_param":{"num_deleted":"0","num_feature":"5","num_nodes":"15","size_leaf_vector":"1"}},{"base_weights":[6.274029E-4,-2.4024507E-2,6.766307E-2,-2.218069E-1,-8.78924E-3,2.637951E-2,2.496568E-1,1.3531052E-2,-4.0861297E-2,-1.3442196E-2,2.1750748E-3,3.0025527E-2,-1.995794E-3,5.6789935E-2,-1.68896E-2],"categories":[],"categories_nodes":[],"categories_segments":[],"categories_sizes":[],"default_left":[0,0,0,0,0,0,0,0,0,0,0,0,0,0,0],"id":38,"left_children":[1,3,5,7,9,11,13,-1,-1,-1,-1,-1,-1,-1,-1],"loss_changes":[1.5408723E0,2.0523095E0,1.8769745E0,3.3053112E0,2.435548E0,2.613427E0,6.254469E0,0E0,0E0,0E0,0E0,0E0,0E0,0E0,0E0],"parents":[2147483647,0,0,1,1,2,2,3,3,4,4,5,5,6,6],"right_children":[2,4,6,8,10,12,14,-1,-1,-1,-1,-1,-1,-1,-1],"split_conditions":[5.1E0,2.54E0,7.5E0,1.7E0,1.1E0,8E-1,3E0,1.3531052E-2,-4.0861297E-2,-1.3442196E-2,2.1750748E-3,3.0025527E-2,-1.995794E-3,5.6789935E-2,-1.68896E-2],"split_indices":[4,0,1,3,3,3,3,0,0,0,0,0,0,0,0],"split_type":[0,0,0,0,0,0,0,0,0,0,0,0,0,0,0],"sum_hessian":[9.3043317E2,6.8073804E2,2.4969513E2,4.7717422E1,6.330206E2,2.044602E2,4.523493E1,1.6482832E1,3.123459E1,1.23123695E2,5.0989694E2,2.8794086E1,1.7566612E2,2.5494E1,1.9740929E1],"tree_param":{"num_deleted":"0","num_feature":"5","num_nodes":"15","size_leaf_vector":"1"}},{"base_weights":[5.960795E-4,-5.1145047E-2,3.055792E-2,-5.588457E-3,-3.0727714E-1,1.8580873E-1,-1.4183467E-3,-2.3405866E-3,4.4787806E-2,6.46321E-2,-3.8435474E-2,-6.2047686E-2,2.9064355E-2,5.992277E-3,-9.82676E-3],"categories":[],"categories_nodes":[],"categories_segments":[],"categories_sizes":[],"default_left":[0,0,0,0,0,0,0,0,0,0,0,0,0,0,0],"id":39,"left_children":[1,3,5,7,9,11,13,-1,-1,-1,-1,-1,-1,-1,-1],"loss_changes":[1.4440387E0,3.9841774E0,2.9286268E0,2.3618906E0,4.0384245E0,8.6966095E0,2.9176564E0,0E0,0E0,0E0,0E0,0E0,0E0,0E0,0E0],"parents":[2147483647,0,0,1,1,2,2,3,3,4,4,5,5,6,6],"right_children":[2,4,6,8,10,12,14,-1,-1,-1,-1,-1,-1,-1,-1],"split_conditions":[6.6E0,6.5E0,6.8E0,9.4E0,4E-1,6E-1,3.2E0,-2.3405866E-3,4.4787806E-2,6.46321E-2,-3.8435474E-2,-6.2047686E-2,2.9064355E-2,5.992277E-3,-9.82676E-3],"split_indices":[1,1,1,4,3,3,3,0,0,0,0,0,0,0,0],"split_type":[0,0,0,0,0,0,0,0,0,0,0,0,0,0,0],"sum_hessian":[9.294739E2,3.405943E2,5.888796E2,2.9003027E2,5.0564022E1,9.9752335E1,4.8912723E2,2.7997787E2,1.0052383E1,3.2290554E0,4.733497E1,1.0911704E1,8.884063E1,2.9969293E2,1.8943431E2],"tree_param":{"num_deleted":"0","num_feature":"5","num_nodes":"15","size_leaf_vector":"1"}},{"base_weights":[5.694794E-4,-3.4634978E-2,4.5240793E-2,-2.9475904E-1,-4.270243E-3,2.8589603E-1,1.4733512E-2,-9.142919E-2,-1.5632829E-2,5.4582175E-2,-2.718594E-3,3.463552E-2,-7.123732E-2,-2.2431681E-2,4.816936E-3],"categories":[],"categories_nodes":[],"categories_segments":[],"categories_sizes":[],"default_left":[0,0,0,0,0,0,0,0,0,0,0,0,0,0,0],"id":40,"left_children":[1,3,5,7,9,11,13,-1,-1,-1,-1,-1,-1,-1,-1],"loss_changes":[1.4643158E0,4.1119394E0,3.0086823E0,4.5241947E0,5.9058957E0,3.0300167E0,2.9303005E0,0E0,0E0,0E0,0E0,0E0,0E0,0E0,0E0],"parents":[2147483647,0,0,1,1,2,2,3,3,4,4,5,5,6,6],"right_children":[2,4,6,8,10,12,14,-1,-1,-1,-1,-1,-1,-1,-1],"split_conditions":[3.9E0,6E-1,4.1E0,6.1E0,8E-1,8E0,4.3E0,-9.142919E-2,-1.5632829E-2,5.4582175E-2,-2.718594E-3,3.463552E-2,-7.123732E-2,-2.2431681E-2,4.816936E-3],"split_indices":[2,3,2,1,3,1,2,0,0,0,0,0,0,0,0],"split_type":[0,0,0,0,0,0,0,0,0,0,0,0,0,0,0],"sum_hessian":[9.2912946E2,5.197505E2,4.0937897E2,5.341924E1,4.6633124E2,4.5115566E1,3.642634E2,8.732615E0,4.4686623E1,1.7736933E1,4.485943E2,4.3154972E1,1.9605925E0,4.3997E1,3.202664E2],"tree_param":{"num_deleted":"0","num_feature":"5","num_nodes":"15","size_leaf_vector":"1"}},{"base_weights":[3.8203035E-4,-2.604001E-3,5.2461916E-1,-6.0853305E-5,-5.856733E-1,9.1517024E-2,-1.23333605E-2,-9.774349E-4,1.7016402E-2,-1.1005024E-1,4.191678E-2],"categories":[],"categories_nodes":[],"categories_segments":[],"categories_sizes":[],"default_left":[0,0,0,0,0,0,0,0,0,0,0],"id":41,"left_children":[1,3,5,7,9,-1,-1,-1,-1,-1,-1],"loss_changes":[1.4563069E0,1.3718427E0,1.4462434E0,1.5264302E0,2.53972E0,0E0,0E0,0E0,0E0,0E0,0E0],"parents":[2147483647,0,0,1,1,2,2,3,3,4,4],"right_children":[2,4,6,8,10,-1,-1,-1,-1,-1,-1],"split_conditions":[8.7E0,8.6E0,8.9E0,3.99E0,3.8E0,9.1517024E-2,-1.23333605E-2,-9.774349E-4,1.7016402E-2,-1.1005024E-1,4.191678E-2],"split_indices":[1,1,1,0,3,0,0,0,0,0,0],"split_type":[0,0,0,0,0,0,0,0,0,0,0],"sum_hessian":[9.2844385E2,9.2417487E2,4.269026E0,9.2115717E2,3.0176666E0,2.4062595E0,1.8627661E0,8.7232263E2,4.8834534E1,1.9324023E0,1.0852642E0],"tree_param":{"num_deleted":"0","num_feature":"5","num_nodes":"11","size_leaf_vector":"1"}},{"base_weights":[3.785256E-4,-1.0085318E-2,1.4155202E-1,7.008155E-3,-1.0174058E-1,4.8049814E-1,1.4917521E-2,-1.2891372E-3,1.2275033E-2,-2.6292657E-2,8.40584E-3,-1.1738222E-2,7.264588E-2,-7.344266E-3,6.7388624E-2],"categories":[],"categories_nodes":[],"categories_segments":[],"categories_sizes":[],"default_left":[0,0,0,0,0,0,0,0,0,0,0,0,0,0,0],"id":42,"left_children":[1,3,5,7,9,11,13,-1,-1,-1,-1,-1,-1,-1,-1],"loss_changes":[1.3738999E0,1.3573462E0,2.7475514E0,1.6846387E0,4.1001935E0,2.6475964E0,2.8301036E0,0E0,0E0,0E0,0E0,0E0,0E0,0E0,0E0],"parents":[2147483647,0,0,1,1,2,2,3,3,4,4,5,5,6,6],"right_children":[2,4,6,8,10,12,14,-1,-1,-1,-1,-1,-1,-1,-1],"split_conditions":[7.9E0,4.3E0,8E0,5.4E0,4.7E0,2.8E0,3.83E0,-1.2891372E-3,1.2275033E-2,-2.6292657E-2,8.40584E-3,-1.1738222E-2,7.264588E-2,-7.344266E-3,6.7388624E-2],"split_indices":[1,3,1,2,3,2,0,0,0,0,0,0,0,0,0],"split_type":[0,0,0,0,0,0,0,0,0,0,0,0,0,0,0],"sum_hessian":[9.2809314E2,8.649139E2,6.3179256E1,7.297423E2,1.3517155E2,1.6424244E1,4.6755013E1,6.234426E2,1.06299736E2,7.2157616E1,6.3013943E1,4.93967E0,1.1484573E1,4.201044E1,4.7445717E0],"tree_param":{"num_deleted":"0","num_feature":"5","num_nodes":"15","size_leaf_vector":"1"}},{"base_weights":[4.7352322E-4,-2.3067705E-3,4.9370196E-1,-1.3057519E-2,1.257829E-1,8.6369835E-2,-1.1043802E-2,-3.0329073E-2,-5.6025386E-4,6.668251E-2,6.1027063E-3],"categories":[],"categories_nodes":[],"categories_segments":[],"categories_sizes":[],"default_left":[0,0,0,0,0,0,0,0,0,0,0],"id":43,"left_children":[1,3,5,7,9,-1,-1,-1,-1,-1,-1],"loss_changes":[1.2742513E0,1.2742882E0,1.2596512E0,1.8450494E0,2.4697924E0,0E0,0E0,0E0,0E0,0E0,0E0],"parents":[2147483647,0,0,1,1,2,2,3,3,4,4],"right_children":[2,4,6,8,10,-1,-1,-1,-1,-1,-1],"split_conditions":[8.7E0,8.5E0,8.9E0,2.36E0,6E0,8.6369835E-2,-1.1043802E-2,-3.0329073E-2,-5.6025386E-4,6.668251E-2,6.1027063E-3],"split_indices":[1,4,1,0,1,0,0,0,0,0,0],"split_type":[0,0,0,0,0,0,0,0,0,0,0],"sum_hessian":[9.2738464E2,9.231761E2,4.2085547E0,8.525209E2,7.065522E1,2.3436127E0,1.8649423E0,2.035583E1,8.3216504E2,6.5587373E0,6.409648E1],"tree_param":{"num_deleted":"0","num_feature":"5","num_nodes":"11","size_leaf_vector":"1"}},{"base_weights":[5.5334176E-4,-1.644411E-2,7.6287694E-2,-2.5039527E-1,-4.5033701E-4,3.9648302E-2,6.561891E-1,5.058748E-4,-4.5317408E-2,2.7629964E-3,-1.75436E-2,1.4394089E-2,-2.2464532E-2,8.286884E-2,-1.6124882E-2],"categories":[],"categories_nodes":[],"categories_segments":[],"categories_sizes":[],"default_left":[0,0,0,0,0,0,0,0,0,0,0,0,0,0,0],"id":44,"left_children":[1,3,5,7,9,11,13,-1,-1,-1,-1,-1,-1,-1,-1],"loss_changes":[1.195451E0,2.8378766E0,3.5906565E0,2.5162652E0,3.4981172E0,4.4747267E0,1.5509372E0,0E0,0E0,0E0,0E0,0E0,0E0,0E0,0E0],"parents":[2147483647,0,0,1,1,2,2,3,3,4,4,5,5,6,6],"right_children":[2,4,6,8,10,12,14,-1,-1,-1,-1,-1,-1,-1,-1],"split_conditions":[7.5E0,1.3E0,4.9E0,7E-1,4.4E0,3.7E0,5.6E0,5.058748E-4,-4.5317408E-2,2.7629964E-3,-1.75436E-2,1.4394089E-2,-2.2464532E-2,8.286884E-2,-1.6124882E-2],"split_indices":[1,2,3,2,3,3,4,0,0,0,0,0,0,0,0],"split_type":[0,0,0,0,0,0,0,0,0,0,0,0,0,0,0],"sum_hessian":[9.26682E2,7.5746344E2,1.6921857E2,4.753166E1,7.0993176E2,1.6016724E2,9.0513315E0,2.1465363E1,2.6066296E1,6.124869E2,9.74449E1,1.1517395E2,4.499328E1,7.4627476E0,1.588584E0],"tree_param":{"num_deleted":"0","num_feature":"5","num_nodes":"15","size_leaf_vector":"1"}},{"base_weights":[4.8520023E-4,-2.0702587E-2,5.8220197E-2,-1.21182784E-1,4.091879E-3,3.3159256E-1,3.295785E-2,-1.7428871E-2,4.1808117E-2,2.8800974E-2,-4.697811E-3,-1.2587239E-2,7.148696E-2,1.1717005E-3,4.718773E-2],"categories":[],"categories_nodes":[],"categories_segments":[],"categories_sizes":[],"default_left":[0,0,0,0,0,0,0,0,0,0,0,0,0,0,0],"id":45,"left_children":[1,3,5,7,9,11,13,-1,-1,-1,-1,-1,-1,-1,-1],"loss_changes":[1.1354467E0,1.6922014E0,1.7099481E0,3.9226022E0,7.9246125E0,3.7665753E0,2.1314542E0,0E0,0E0,0E0,0E0,0E0,0E0,0E0,0E0],"parents":[2147483647,0,0,1,1,2,2,3,3,4,4,5,5,6,6],"right_children":[2,4,6,8,10,12,14,-1,-1,-1,-1,-1,-1,-1,-1],"split_conditions":[5.1E0,1.1E0,5.5E0,7.8E0,1.7E0,6.6E0,3.99E0,-1.7428871E-2,4.1808117E-2,2.8800974E-2,-4.697811E-3,-1.2587239E-2,7.148696E-2,1.1717005E-3,4.718773E-2],"split_indices":[4,3,4,1,3,1,0,0,0,0,0,0,0,0,0],"split_type":[0,0,0,0,0,0,0,0,0,0,0,0,0,0,0],"sum_hessian":[9.2621564E2,6.7803094E2,2.481847E2,1.3342703E2,5.446039E2,1.996887E1,2.2821582E2,1.22081436E2,1.1345596E1,8.231933E1,4.6228458E2,9.409561E0,1.0559309E1,2.1866077E2,9.555061E0],"tree_param":{"num_deleted":"0","num_feature":"5","num_nodes":"15","size_leaf_vector":"1"}},{"base_weights":[6.064617E-4,-1.9033422E-3,4.505028E-1,4.9621414E-4,-5.5045664E-1,8.136447E-2,-1.2383743E-2,-3.3738656E-4,3.920224E-2,-1.044426E-1,4.047821E-2],"categories":[],"categories_nodes":[],"categories_segments":[],"categories_sizes":[],"default_left":[0,0,0,0,0,0,0,0,0,0,0],"id":46,"left_children":[1,3,5,7,9,-1,-1,-1,-1,-1,-1],"loss_changes":[1.0471815E0,1.2145473E0,1.1738245E0,1.3945572E0,2.3190029E0,0E0,0E0,0E0,0E0,0E0,0E0],"parents":[2147483647,0,0,1,1,2,2,3,3,4,4],"right_children":[2,4,6,8,10,-1,-1,-1,-1,-1,-1],"split_conditions":[8.7E0,8.6E0,8.9E0,7.1E0,3.8E0,8.136447E-2,-1.2383743E-2,-3.3738656E-4,3.920224E-2,-1.044426E-1,4.047821E-2],"split_indices":[1,1,1,2,3,0,0,0,0,0,0],"split_type":[0,0,0,0,0,0,0,0,0,0,0],"sum_hessian":[9.256462E2,9.215012E2,4.144942E0,9.1848254E2,3.0186558E0,2.2840998E0,1.8608421E0,9.1047424E2,8.008291E0,1.9281907E0,1.0904651E0],"tree_param":{"num_deleted":"0","num_feature":"5","num_nodes":"11","size_leaf_vector":"1"}},{"base_weights":[5.976363E-4,-8.762323E-3,1.1213586E-1,-3.47974E-1,-3.6533247E-3,6.2030864E-1,5.2627385E-2,-1.4518936E-2,-9.2379846E-2,4.1561905E-2,-9.206025E-4,7.277111E-3,1.0467686E-1,-5.9267133E-2,1.2197734E-2],"categories":[],"categories_nodes":[],"categories_segments":[],"categories_sizes":[],"default_left":[0,0,0,0,0,0,0,0,0,0,0,0,0,0,0],"id":47,"left_children":[1,3,5,7,9,11,13,-1,-1,-1,-1,-1,-1,-1,-1],"loss_changes":[9.682312E-1,1.4816632E0,2.1386728E0,1.3471987E0,1.9687419E0,1.6596956E0,2.997578E0,0E0,0E0,0E0,0E0,0E0,0E0,0E0,0E0],"parents":[2147483647,0,0,1,1,2,2,3,3,4,4,5,5,6,6],"right_children":[2,4,6,8,10,12,14,-1,-1,-1,-1,-1,-1,-1,-1],"split_conditions":[8.5E0,2E-1,6E0,5.3E0,6E-1,5.8E0,6.2E0,-1.4518936E-2,-9.2379846E-2,4.1561905E-2,-9.206025E-4,7.277111E-3,1.0467686E-1,-5.9267133E-2,1.2197734E-2],"split_indices":[4,2,1,4,2,1,1,0,0,0,0,0,0,0,0],"split_type":[0,0,0,0,0,0,0,0,0,0,0,0,0,0,0],"sum_hessian":[9.254893E2,8.5468787E2,7.080145E1,1.1686008E1,8.430019E2,6.4340444E0,6.436741E1,9.568477E0,2.1175315E0,1.0053245E1,8.329486E2,3.329673E0,3.1043713E0,5.513976E0,5.8853436E1],"tree_param":{"num_deleted":"0","num_feature":"5","num_nodes":"15","size_leaf_vector":"1"}},{"base_weights":[5.3950265E-4,-4.176108E-2,2.500231E-2,6.429073E-5,-2.7718174E-1,1.702794E-1,-4.930389E-3,-2.289943E-3,2.9440427E-2,-5.3736933E-2,-9.746575E-5,-1.7198477E-3,5.5343248E-2,3.50971E-2,-1.8993941E-3],"categories":[],"categories_nodes":[],"categories_segments":[],"categories_sizes":[],"default_left":[0,0,0,0,0,0,0,0,0,0,0,0,0,0,0],"id":48,"left_children":[1,3,5,7,9,11,13,-1,-1,-1,-1,-1,-1,-1,-1],"loss_changes":[9.5939416E-1,3.3450694E0,2.5552177E0,1.9632952E0,3.6825988E0,7.2201586E0,2.449373E0,0E0,0E0,0E0,0E0,0E0,0E0,0E0,0E0],"parents":[2147483647,0,0,1,1,2,2,3,3,4,4,5,5,6,6],"right_children":[2,4,6,8,10,12,14,-1,-1,-1,-1,-1,-1,-1,-1],"split_conditions":[6.6E0,6.5E0,6.8E0,4.7E0,3.8E0,3.44E0,8E-1,-2.289943E-3,2.9440427E-2,-5.3736933E-2,-9.746575E-5,-1.7198477E-3,5.5343248E-2,3.50971E-2,-1.8993941E-3],"split_indices":[1,1,1,3,2,0,2,0,0,0,0,0,0,0,0],"split_type":[0,0,0,0,0,0,0,0,0,0,0,0,0,0,0],"sum_hessian":[9.251291E2,3.387179E2,5.864112E2,2.884678E2,5.0250114E1,9.938099E1,4.8703018E2,2.6844644E2,2.0021364E1,2.538854E1,2.4861576E1,6.737119E1,3.20098E1,1.760293E1,4.6942725E2],"tree_param":{"num_deleted":"0","num_feature":"5","num_nodes":"15","size_leaf_vector":"1"}},{"base_weights":[5.4816256E-4,-1.0790121E-1,9.697708E-3,-7.388645E-1,-4.0780626E-2,6.783417E-1,5.6725712E-3,-1.1387526E-2,-1.11173294E-1,3.5756659E-3,-5.5475216E-2,1.21312015E-1,2.0298548E-2,-3.4841515E-2,1.1290361E-3],"categories":[],"categories_nodes":[],"categories_segments":[],"categories_sizes":[],"default_left":[0,0,0,0,0,0,0,0,0,0,0,0,0,0,0],"id":49,"left_children":[1,3,5,7,9,11,13,-1,-1,-1,-1,-1,-1,-1,-1],"loss_changes":[9.1958016E-1,3.0235348E0,2.2961872E0,1.4754028E0,2.6251912E0,1.0515738E0,1.6957134E0,0E0,0E0,0E0,0E0,0E0,0E0,0E0,0E0],"parents":[2147483647,0,0,1,1,2,2,3,3,4,4,5,5,6,6],"right_children":[2,4,6,8,10,12,14,-1,-1,-1,-1,-1,-1,-1,-1],"split_conditions":[2.56E0,5.9E0,6E-1,2.39E0,2.1E0,1.1E0,1.2E0,-1.1387526E-2,-1.11173294E-1,3.5756659E-3,-5.5475216E-2,1.21312015E-1,2.0298548E-2,-3.4841515E-2,1.1290361E-3],"split_indices":[0,1,2,0,2,3,2,0,0,0,0,0,0,0,0],"split_type":[0,0,0,0,0,0,0,0,0,0,0,0,0,0,0],"sum_hessian":[9.2469635E2,7.110439E1,8.535919E2,5.8744006E0,6.5229996E1,4.1052995E0,8.4948663E2,2.68287E0,3.1915307E0,5.7585213E1,7.6447835E0,1.2015386E0,2.903761E0,1.2314074E1,8.3717255E2],"tree_param":{"num_deleted":"0","num_feature":"5","num_nodes":"15","size_leaf_vector":"1"}},{"base_weights":[4.067291E-4,-1.7703512E-1,5.98408E-3,-4.9892446E-1,9.895091E-2,9.218523E-1,1.2716523E-3,2.0799166E-2,-8.250288E-2,-4.397411E-2,6.2351882E-2,1.1538682E-2,1.1529378E-1,-6.739678E-2,5.4750725E-4],"categories":[],"categories_nodes":[],"categories_segments":[],"categories_sizes":[],"default_left":[0,0,0,0,0,0,0,0,0,0,0,0,0,0,0],"id":50,"left_children":[1,3,5,7,9,11,13,-1,-1,-1,-1,-1,-1,-1,-1],"loss_changes":[9.168801E-1,2.5575256E0,3.8752527E0,3.2141807E0,4.8053546E0,7.235403E-1,2.542744E0,0E0,0E0,0E0,0E0,0E0,0E0,0E0,0E0],"parents":[2147483647,0,0,1,1,2,2,3,3,4,4,5,5,6,6],"right_children":[2,4,6,8,10,12,14,-1,-1,-1,-1,-1,-1,-1,-1],"split_conditions":[2.37E0,2.3E0,2.39E0,2.12E0,6.8E0,4E-1,2.41E0,2.0799166E-2,-8.250288E-2,-4.397411E-2,6.2351882E-2,1.1538682E-2,1.1529378E-1,-6.739678E-2,5.4750725E-4],"split_indices":[0,3,0,0,1,2,0,0,0,0,0,0,0,0,0],"split_type":[0,0,0,0,0,0,0,0,0,0,0,0,0,0,0],"sum_hessian":[9.243934E2,2.7233253E1,8.971601E2,1.2198293E1,1.5034961E1,3.596276E0,8.9356384E2,3.9650993E0,8.233193E0,7.4974E0,7.5375605E0,1.134903E0,2.461373E0,4.542339E0,8.890215E2],"tree_param":{"num_deleted":"0","num_feature":"5","num_nodes":"15","size_leaf_vector":"1"}},{"base_weights":[3.4434392E-4,-1.9875832E-3,4.220291E-1,2.5952503E-4,-5.1354843E-1,7.650028E-2,-1.1332258E-2,4.7771438E-4,-3.4113E-2,-9.769153E-2,3.7524316E-2],"categories":[],"categories_nodes":[],"categories_segments":[],"categories_sizes":[],"default_left":[0,0,0,0,0,0,0,0,0,0,0],"id":51,"left_children":[1,3,5,7,9,-1,-1,-1,-1,-1,-1],"loss_changes":[9.105258E-1,1.0588627E0,1.0217123E0,1.4174002E0,2.025656E0,0E0,0E0,0E0,0E0,0E0,0E0],"parents":[2147483647,0,0,1,1,2,2,3,3,4,4],"right_children":[2,4,6,8,10,-1,-1,-1,-1,-1,-1],"split_conditions":[8.7E0,8.6E0,8.9E0,5E0,3.8E0,7.650028E-2,-1.1332258E-2,4.7771438E-4,-3.4113E-2,-9.769153E-2,3.7524316E-2],"split_indices":[1,1,1,3,3,0,0,0,0,0,0],"split_type":[0,0,0,0,0,0,0,0,0,0,0],"sum_hessian":[9.2410077E2,9.200084E2,4.0923824E0,9.169799E2,3.02848E0,2.2329001E0,1.8594823E0,9.059771E2,1.1002819E1,1.9254875E0,1.1029927E0],"tree_param":{"num_deleted":"0","num_feature":"5","num_nodes":"11","size_leaf_vector":"1"}},{"base_weights":[2.8047102E-4,-4.161902E-3,2.2267817E-1,-3.2328394E-1,-1.6752635E-4,9.298396E-2,8.3186395E-2,7.949569E-3,-4.80377E-2,-1.1732619E-3,1.1910616E-2,-4.4789013E-2,4.9100574E-2],"categories":[],"categories_nodes":[],"categories_segments":[],"categories_sizes":[],"default_left":[0,0,0,0,0,0,0,0,0,0,0,0,0],"id":52,"left_children":[1,3,5,7,9,-1,11,-1,-1,-1,-1,-1,-1],"loss_changes":[9.14828E-1,1.15723E0,1.7114264E0,7.4830294E-1,1.2396529E0,0E0,3.7381794E0,0E0,0E0,0E0,0E0,0E0,0E0],"parents":[2147483647,0,0,1,1,2,2,3,3,4,4,6,6],"right_children":[2,4,6,8,10,-1,12,-1,-1,-1,-1,-1,-1],"split_conditions":[9.6E0,1E-1,6E-1,2.09E0,7.8E0,9.298396E-2,2.6E0,7.949569E-3,-4.80377E-2,-1.1732619E-3,1.1910616E-2,-4.4789013E-2,4.9100574E-2],"split_indices":[4,2,3,0,1,0,3,0,0,0,0,0,0],"split_type":[0,0,0,0,0,0,0,0,0,0,0,0,0],"sum_hessian":[9.240262E2,9.0689233E2,1.7133802E1,1.0222876E1,8.966695E2,1.8894116E0,1.52443905E1,3.007005E0,7.2158704E0,8.182331E2,7.843642E1,6.578883E0,8.665507E0],"tree_param":{"num_deleted":"0","num_feature":"5","num_nodes":"13","size_leaf_vector":"1"}}]},"name":"gbtree"},"learner_model_param":{"base_score":"[4.8975E-1]","boost_from_average":"1","num_class":"0","num_feature":"5","num_target":"1"},"objective":{"name":"binary:logistic","reg_loss_param":{"scale_pos_weight":"1"}}},"version":[3,2,0]}